{
  "kind": "shallow_blue_probe_tiny_mlp_v1",
  "feature_names": [
    "backbone_agrees_with_ngram",
    "ngram_log_support",
    "ngram_prediction_prob",
    "ngram_top2_prediction_prob",
    "ngram_top1_top2_margin",
    "ngram_log_unique_continuations",
    "ngram_continuation_entropy_bits",
    "lz_triggered",
    "lz_log_match_len",
    "lz_log_support",
    "lz_prediction_prob",
    "backbone_entropy_bits",
    "backbone_top1_prob",
    "prefix_log_tokens",
    "regime_repeat_fraction"
  ],
  "feature_means": [
    0.5153274299128616,
    1.478040516340942,
    0.8102493029283628,
    0.09831114747416957,
    0.7119381554542977,
    1.037246613650468,
    0.6231626397772501,
    0.40471600806589975,
    0.7692599345044023,
    0.45315411319598475,
    0.36415184735468353,
    2.5859594251965854,
    0.5834247687127649,
    8.265860224201482,
    0.7791193803640235
  ],
  "feature_stds": [
    0.49976501467448575,
    1.0619024545551528,
    0.28326284754692643,
    0.15889712085530633,
    0.4143673717862596,
    0.6182512684847085,
    1.0391176210587139,
    0.49083700031720573,
    0.9452165069044218,
    0.7089783336556924,
    0.46338481639943985,
    2.1899243351149043,
    0.3442005976845935,
    2.1101592965858025,
    0.19265907433540896
  ],
  "hidden_dim": 32,
  "fc1_weight": [
    [
      0.00277228862978518,
      -0.45017877221107483,
      0.10155431181192398,
      0.06147535517811775,
      0.00797212589532137,
      -0.02023807354271412,
      -0.011644619517028332,
      0.06930211931467056,
      -0.09215240925550461,
      -0.30163082480430603,
      0.15185098350048065,
      0.19498588144779205,
      0.12715375423431396,
      -0.06973647326231003,
      -0.26578375697135925
    ],
    [
      -0.4457172453403473,
      0.3053252100944519,
      0.015393068082630634,
      -0.1453465223312378,
      0.03647106513381004,
      -0.47636857628822327,
      0.2945671081542969,
      -0.1426931470632553,
      0.10802416503429413,
      0.030280383303761482,
      0.0642591044306755,
      0.5160027146339417,
      0.4528910517692566,
      -0.3700180947780609,
      0.3107200860977173
    ],
    [
      -0.24798890948295593,
      -0.04343036934733391,
      -0.008055074140429497,
      0.024937016889452934,
      0.01454603485763073,
      -0.013008498586714268,
      0.029898501932621002,
      -0.04295606538653374,
      0.18065576255321503,
      -0.0382852666079998,
      0.22045153379440308,
      0.1824990212917328,
      0.05634675547480583,
      0.040873218327760696,
      0.22154082357883453
    ],
    [
      -0.09878885746002197,
      0.12374506145715714,
      -0.0631176307797432,
      -0.007024838589131832,
      -0.027839578688144684,
      -0.24445468187332153,
      -0.0781337320804596,
      -0.002636680845171213,
      -0.019635291770100594,
      -0.07483082264661789,
      0.07925720512866974,
      0.021499697118997574,
      -0.03511746972799301,
      -0.5597448945045471,
      0.09943357110023499
    ],
    [
      -0.19930824637413025,
      0.1489887535572052,
      0.005425500683486462,
      -0.04485060274600983,
      0.05206059664487839,
      0.024726413190364838,
      -0.07109733670949936,
      -0.040131330490112305,
      0.09916967898607254,
      0.0978897362947464,
      -0.11897297948598862,
      -0.3182581663131714,
      -0.365704745054245,
      0.16082817316055298,
      -0.09229879081249237
    ],
    [
      0.12874853610992432,
      0.0035378679167479277,
      -0.035551175475120544,
      0.02249426767230034,
      0.007831468246877193,
      0.006067827809602022,
      -0.05954160913825035,
      -0.16107264161109924,
      -0.024083957076072693,
      0.19754813611507416,
      -0.28504419326782227,
      0.08942446857690811,
      -0.21660196781158447,
      -0.09420241415500641,
      0.05531274899840355
    ],
    [
      -0.139278382062912,
      0.3873251676559448,
      0.06873197108507156,
      -0.02412523329257965,
      0.0732579156756401,
      -0.23183445632457733,
      -0.18159045279026031,
      -0.12680058181285858,
      0.12926334142684937,
      0.06742929667234421,
      0.10448425263166428,
      0.07542859762907028,
      -0.1281796246767044,
      -0.04415079578757286,
      0.27406445145606995
    ],
    [
      -0.004566870629787445,
      -0.09463860839605331,
      -0.011101196520030499,
      -0.09548259526491165,
      0.026822112500667572,
      0.0696645975112915,
      0.07750409096479416,
      -0.01332267839461565,
      -0.08661338686943054,
      -0.020446976646780968,
      -0.03857806697487831,
      -0.0006186593091115355,
      -0.04716874286532402,
      0.029541734606027603,
      -0.05401194468140602
    ],
    [
      -0.07643691450357437,
      -0.2265838384628296,
      0.01595529168844223,
      -0.08605460822582245,
      0.07004374265670776,
      -0.011911272071301937,
      -0.027340924367308617,
      0.07793547213077545,
      -0.03364408761262894,
      0.05382445082068443,
      0.07872659713029861,
      -0.24571897089481354,
      0.00938312616199255,
      0.022993966937065125,
      -0.009059369564056396
    ],
    [
      -0.03100985288619995,
      -0.13380111753940582,
      -0.07790074497461319,
      -0.006210616324096918,
      -0.01728149875998497,
      -0.12045701593160629,
      0.12023181468248367,
      0.11401909589767456,
      -0.010144629515707493,
      0.1815863698720932,
      -0.050072260200977325,
      0.018178869038820267,
      -0.06020737811923027,
      -0.09033112227916718,
      -0.18787364661693573
    ],
    [
      -0.0716383159160614,
      -0.0642474889755249,
      0.04993702098727226,
      0.021052643656730652,
      0.0013064766535535455,
      -0.10336805880069733,
      -0.041316475719213486,
      -0.027648497372865677,
      -0.00137049809563905,
      -0.06513817608356476,
      0.04775388166308403,
      0.011443736962974072,
      -0.09934600442647934,
      0.09376724809408188,
      0.10098118335008621
    ],
    [
      -0.32261309027671814,
      0.30639782547950745,
      0.13422000408172607,
      0.04608084261417389,
      0.03772114962339401,
      0.03310707211494446,
      0.060884661972522736,
      -0.012256965972483158,
      -0.023359021171927452,
      0.10566169023513794,
      0.028066441416740417,
      0.022455807775259018,
      0.04237022623419762,
      -0.2927068769931793,
      0.04372215270996094
    ],
    [
      -0.48368069529533386,
      0.04563400149345398,
      0.11835460364818573,
      -0.21044425666332245,
      0.09032995998859406,
      -0.3588689863681793,
      -0.1174154207110405,
      -0.19573703408241272,
      0.35660138726234436,
      -0.008597181178629398,
      0.08887122571468353,
      0.04800261929631233,
      -0.1942981481552124,
      -0.06484144181013107,
      0.08102697879076004
    ],
    [
      -0.1611965149641037,
      0.32636627554893494,
      -0.07396484166383743,
      -0.030886515974998474,
      -0.05007125437259674,
      -0.2753707468509674,
      -0.0662786066532135,
      -0.21720156073570251,
      0.22237548232078552,
      0.005276161711663008,
      0.11368511617183685,
      -0.22956907749176025,
      -0.2904510498046875,
      -0.19844436645507812,
      0.20142224431037903
    ],
    [
      0.11514133960008621,
      -0.0776960626244545,
      0.12454013526439667,
      -0.08429741859436035,
      0.11946233361959457,
      0.07352764904499054,
      -0.08605670928955078,
      0.07464761286973953,
      0.13474828004837036,
      -0.056865815073251724,
      0.03447284922003746,
      -0.23853324353694916,
      -0.04250310733914375,
      0.14797882735729218,
      -0.029308300465345383
    ],
    [
      -0.06688296794891357,
      0.7131257653236389,
      0.03468261659145355,
      0.047897819429636,
      -0.07389406859874725,
      -0.3381648361682892,
      -0.13240879774093628,
      -0.06104813888669014,
      0.1730225831270218,
      0.03671620413661003,
      -0.0009029438951984048,
      0.060333143919706345,
      -0.12363702803850174,
      0.043442025780677795,
      0.16447731852531433
    ],
    [
      0.004079151898622513,
      0.3823847472667694,
      -0.09516569972038269,
      -0.038486890494823456,
      -0.043667636811733246,
      -0.3956567645072937,
      -0.024532809853553772,
      -0.3168574273586273,
      0.3591079115867615,
      0.032157838344573975,
      0.055289026349782944,
      0.06455091387033463,
      -0.3372507095336914,
      -0.09638285636901855,
      0.16231566667556763
    ],
    [
      -0.0564640648663044,
      0.11109863966703415,
      0.03842836618423462,
      0.07417672872543335,
      0.009806179441511631,
      -0.0960473045706749,
      0.08420741558074951,
      0.08483061194419861,
      -0.12221277505159378,
      -0.00032487628050148487,
      0.08877263963222504,
      0.45199882984161377,
      0.3005719780921936,
      -0.1744929403066635,
      0.07143429666757584
    ],
    [
      0.19219033420085907,
      0.3620949685573578,
      -0.02919234335422516,
      -0.04638800770044327,
      -0.00030135345878079534,
      -0.2938326895236969,
      -0.1084429919719696,
      -0.21497386693954468,
      0.15660721063613892,
      0.04697168618440628,
      0.13193953037261963,
      0.2837989628314972,
      0.12350495159626007,
      -0.028270326554775238,
      0.15068210661411285
    ],
    [
      0.2540385127067566,
      -0.22239580750465393,
      0.12223713845014572,
      -0.026411520317196846,
      0.07060693949460983,
      0.012126597575843334,
      -0.09547358006238937,
      -0.0634935200214386,
      -0.1638672649860382,
      0.047532908618450165,
      -0.06311734765768051,
      -0.060430847108364105,
      -0.192737877368927,
      0.13539184629917145,
      -0.19704851508140564
    ],
    [
      -0.03945000097155571,
      0.29205432534217834,
      0.10285503417253494,
      0.11152961105108261,
      0.08184986561536789,
      -0.06657933443784714,
      -0.07498336583375931,
      -0.18929247558116913,
      0.10128917545080185,
      -0.05219282954931259,
      0.10019487142562866,
      0.1634145826101303,
      -0.04343704134225845,
      0.13188514113426208,
      0.18994919955730438
    ],
    [
      -0.1567050963640213,
      -0.12477002292871475,
      0.004698759876191616,
      0.12215206772089005,
      -0.03536131605505943,
      -0.017126988619565964,
      -0.046381693333387375,
      0.07786370068788528,
      -0.15133069455623627,
      -0.06539954990148544,
      0.07127407938241959,
      -0.09543979167938232,
      -0.08088988065719604,
      0.04481092840433121,
      -0.16127163171768188
    ],
    [
      0.008866840973496437,
      0.4735409915447235,
      -0.030084043741226196,
      0.013511168770492077,
      0.0008008014992810786,
      0.016228536143898964,
      -0.2527420222759247,
      -0.09625975787639618,
      0.23126938939094543,
      -0.13092540204524994,
      0.07698075473308563,
      -0.3919766843318939,
      -0.30763331055641174,
      0.0868389755487442,
      0.030706755816936493
    ],
    [
      -0.28051134943962097,
      -0.47503578662872314,
      0.09625325351953506,
      -0.11219018697738647,
      0.1371479481458664,
      0.034295886754989624,
      0.066864013671875,
      0.10877535492181778,
      -0.20105703175067902,
      -0.19544854760169983,
      0.13551540672779083,
      -0.02835335209965706,
      -0.16232937574386597,
      0.07456932961940765,
      -0.21096205711364746
    ],
    [
      -0.03366662561893463,
      -0.3120776414871216,
      -0.04636445268988609,
      -0.05166910961270332,
      0.011859877035021782,
      0.03044186159968376,
      0.06604257225990295,
      0.08582456409931183,
      -0.17390330135822296,
      -0.005324319936335087,
      0.0582859106361866,
      0.07017959654331207,
      0.07473184168338776,
      0.10376442968845367,
      -0.28908777236938477
    ],
    [
      -0.208359956741333,
      -0.2098274976015091,
      -0.01166997104883194,
      0.024620337411761284,
      0.0633198544383049,
      0.23527935147285461,
      -0.171745166182518,
      -1.0195215940475464,
      1.4136676788330078,
      0.06617854535579681,
      0.14432579278945923,
      0.14427147805690765,
      0.1002415269613266,
      0.052578140050172806,
      0.12813185155391693
    ],
    [
      -0.5185520052909851,
      0.01212269812822342,
      -0.10342035442590714,
      -0.03133442997932434,
      -0.10756222158670425,
      0.06782425194978714,
      0.02490491233766079,
      -0.013587763532996178,
      0.05389789491891861,
      -0.047242049127817154,
      0.006050105206668377,
      -0.2501189708709717,
      0.042038459330797195,
      -0.22959984838962555,
      -0.0751490592956543
    ],
    [
      -0.177871972322464,
      -0.2359236776828766,
      0.06768915057182312,
      0.07089320570230484,
      0.027935737743973732,
      0.06502145528793335,
      -0.1057913675904274,
      0.26431208848953247,
      -0.28316381573677063,
      0.0005143331945873797,
      -0.020368311554193497,
      0.17696309089660645,
      0.14251600205898285,
      0.2680124342441559,
      0.3579831123352051
    ],
    [
      -0.18066877126693726,
      -0.02334783598780632,
      0.017408665269613266,
      -0.08327692747116089,
      -0.022740814834833145,
      -0.009674442932009697,
      0.0031082709319889545,
      -0.009305600076913834,
      -0.11172415316104889,
      0.044568002223968506,
      -0.02901856042444706,
      -0.12233347445726395,
      0.20026375353336334,
      -0.07164570689201355,
      0.017338823527097702
    ],
    [
      -0.04641528055071831,
      -0.015132761560380459,
      0.06166071444749832,
      -0.021403688937425613,
      0.0544736310839653,
      -0.05563243478536606,
      -0.08618269115686417,
      -0.03694300353527069,
      -0.041297607123851776,
      -0.1259792149066925,
      -0.03372540697455406,
      -0.12624868750572205,
      -0.033121272921562195,
      0.1077316552400589,
      -0.024038750678300858
    ],
    [
      -0.3851824700832367,
      -0.661937952041626,
      0.19459640979766846,
      0.048327405005693436,
      0.07960689067840576,
      0.1275121569633484,
      0.26662546396255493,
      0.32149648666381836,
      -0.19770531356334686,
      -0.10413891822099686,
      0.05474446713924408,
      0.3518022298812866,
      0.09801091253757477,
      -0.07260657846927643,
      0.07155334204435349
    ],
    [
      0.1341957449913025,
      0.3064575791358948,
      -0.11891132593154907,
      -0.13752135634422302,
      -0.025869671255350113,
      -0.2927717864513397,
      -0.02350090630352497,
      -0.22450724244117737,
      -0.018177542835474014,
      0.1831192821264267,
      0.14224033057689667,
      -0.2827402353286743,
      0.030763396993279457,
      -0.06347468495368958,
      0.11381837725639343
    ]
  ],
  "fc1_bias": [
    -0.057012785226106644,
    -0.7056490182876587,
    -0.4078291058540344,
    -0.0211241003125906,
    -0.36399954557418823,
    -0.032262273132801056,
    -0.146545872092247,
    -0.03990132361650467,
    -0.168684184551239,
    -0.07810693979263306,
    0.002209331374615431,
    -0.01686655916273594,
    -0.4395628273487091,
    -0.5647412538528442,
    -0.19547931849956512,
    0.044616132974624634,
    -0.4789310395717621,
    -0.4122146666049957,
    -0.413844496011734,
    0.040889374911785126,
    0.16956599056720734,
    -0.35254979133605957,
    -0.2344849854707718,
    -0.31676217913627625,
    -0.4052302837371826,
    -1.290032148361206,
    -0.16811621189117432,
    -0.12585124373435974,
    -0.26476648449897766,
    0.10967188328504562,
    -0.5574327111244202,
    0.01591189019382
  ],
  "fc2_weight": [
    -0.2154313325881958,
    0.9564858078956604,
    0.2289610505104065,
    0.18131370842456818,
    -0.24777908623218536,
    -0.12356968969106674,
    0.17052702605724335,
    0.04267767444252968,
    0.08241388201713562,
    -0.07467809319496155,
    0.032369427382946014,
    0.11471953243017197,
    0.41545557975769043,
    -0.6014834642410278,
    0.12219463288784027,
    0.2631358802318573,
    0.4317742586135864,
    0.4829747974872589,
    -0.30042630434036255,
    0.1647844910621643,
    0.12474049627780914,
    0.22029387950897217,
    -0.30906033515930176,
    -0.318639874458313,
    0.36735594272613525,
    1.7607197761535645,
    -0.2011788785457611,
    -0.22690270841121674,
    -0.14863494038581848,
    0.048672959208488464,
    -0.4874972105026245,
    -0.20024685561656952
  ],
  "fc2_bias": -0.00030930060893297195,
  "selected_threshold": -0.00040334928780794144,
  "ngram_backoff_eps": 0.2,
  "policy_kind": "two_level_uplift",
  "deployment_alpha_lo": 0.05,
  "deployment_alpha_hi": 0.3,
  "selected_target_accept_share": 0.35,
  "calibration_min_seq_pos_in_chunk": 16,
  "source_summary_path": "reports/shallow_blue/probe_baselines_20260405_train1000_to_val100_v3.summary.json"
}
